
\data\
ngram 1=24
ngram 2=40

\1-grams:
-0.3881802	</s>
-99	<s>	-1.050274
-1.041393	apri	-0.6575773
-1.643453	calcolatrice	-0.07255065
-1.643453	calendario	-0.07255065
-1.643453	cancella	-0.2808266
-1.643453	chiama	-0.07255065
-1.643453	cinque	-0.07255065
-1.643453	componi	-0.2808266
-1.643453	contatti	-0.07255065
-1.643453	dove	-0.2910458
-1.643453	due	-0.07255065
-1.643453	impostazioni	-0.07255065
-1.643453	mi	-0.2910458
-1.643453	nove	-0.07255065
-1.342423	numero	-0.2486419
-1.643453	otto	-0.07255065
-1.643453	quattro	-0.07255065
-1.643453	sei	-0.07255065
-1.643453	sette	-0.07255065
-1.643453	tre	-0.07255065
-1.643453	trovo	-0.07255065
-1.643453	uno	-0.07255065
-1.643453	zero	-0.07255065

\2-grams:
-0.6766936	<s> apri
-1.278754	<s> cancella
-1.278754	<s> chiama
-1.278754	<s> cinque
-1.278754	<s> componi
-1.278754	<s> dove
-1.278754	<s> due
-1.278754	<s> nove
-1.278754	<s> otto
-1.278754	<s> quattro
-1.278754	<s> sei
-1.278754	<s> sette
-1.278754	<s> tre
-1.278754	<s> uno
-1.278754	<s> zero
-0.69897	apri calcolatrice
-0.69897	apri calendario
-0.69897	apri contatti
-0.69897	apri impostazioni
-0.30103	calcolatrice </s>
-0.30103	calendario </s>
-0.30103	cancella numero
-0.30103	chiama </s>
-0.30103	cinque </s>
-0.30103	componi numero
-0.30103	contatti </s>
-0.30103	dove mi
-0.30103	due </s>
-0.30103	impostazioni </s>
-0.30103	mi trovo
-0.30103	nove </s>
-0.1760913	numero </s>
-0.30103	otto </s>
-0.30103	quattro </s>
-0.30103	sei </s>
-0.30103	sette </s>
-0.30103	tre </s>
-0.30103	trovo </s>
-0.30103	uno </s>
-0.30103	zero </s>

\end\
