
\data\
ngram 1=4
ngram 2=3
ngram 3=0

\1-grams:
-0.4771213	</s>
-99	<s>	-99
-0.4771213	apri	-99
-0.4771213	impostazioni	-99

\2-grams:
0	<s> apri
0	apri impostazioni
0	impostazioni </s>

\3-grams:

\end\
